<?xml version='1.0' encoding='utf-8'?>
<BIF VERSION="0.3">
  <NETWORK>
    <NAME>UNTITLED</NAME>
    <VARIABLE TYPE="nature">
      <NAME>0</NAME>
      <OUTCOME>0</OUTCOME>
      <OUTCOME>1</OUTCOME>
      <PROPERTY>weight = None</PROPERTY>
    </VARIABLE>
    <VARIABLE TYPE="nature">
      <NAME>1</NAME>
      <OUTCOME>0</OUTCOME>
      <OUTCOME>1</OUTCOME>
      <PROPERTY>weight = None</PROPERTY>
    </VARIABLE>
    <VARIABLE TYPE="nature">
      <NAME>2</NAME>
      <OUTCOME>0</OUTCOME>
      <OUTCOME>1</OUTCOME>
      <PROPERTY>weight = None</PROPERTY>
    </VARIABLE>
    <VARIABLE TYPE="nature">
      <NAME>3</NAME>
      <OUTCOME>0</OUTCOME>
      <OUTCOME>1</OUTCOME>
      <PROPERTY>weight = None</PROPERTY>
    </VARIABLE>
    <VARIABLE TYPE="nature">
      <NAME>4</NAME>
      <OUTCOME>0</OUTCOME>
      <OUTCOME>1</OUTCOME>
      <PROPERTY>weight = None</PROPERTY>
    </VARIABLE>
    <VARIABLE TYPE="nature">
      <NAME>5</NAME>
      <OUTCOME>0</OUTCOME>
      <OUTCOME>1</OUTCOME>
      <PROPERTY>weight = None</PROPERTY>
    </VARIABLE>
    <VARIABLE TYPE="nature">
      <NAME>6</NAME>
      <OUTCOME>0</OUTCOME>
      <OUTCOME>1</OUTCOME>
      <PROPERTY>weight = None</PROPERTY>
    </VARIABLE>
    <VARIABLE TYPE="nature">
      <NAME>7</NAME>
      <OUTCOME>0</OUTCOME>
      <OUTCOME>1</OUTCOME>
      <PROPERTY>weight = None</PROPERTY>
    </VARIABLE>
    <VARIABLE TYPE="nature">
      <NAME>8</NAME>
      <OUTCOME>0</OUTCOME>
      <OUTCOME>1</OUTCOME>
      <PROPERTY>weight = None</PROPERTY>
    </VARIABLE>
    <VARIABLE TYPE="nature">
      <NAME>9</NAME>
      <OUTCOME>0</OUTCOME>
      <OUTCOME>1</OUTCOME>
      <PROPERTY>weight = None</PROPERTY>
    </VARIABLE>
    <DEFINITION>
      <FOR>0</FOR>
      <TABLE>0.21243164728228137 0.7875683527177186 </TABLE>
    </DEFINITION>
    <DEFINITION>
      <FOR>1</FOR>
      <TABLE>0.9616294709109657 0.03837052908903424 </TABLE>
    </DEFINITION>
    <DEFINITION>
      <FOR>2</FOR>
      <GIVEN>0</GIVEN>
      <GIVEN>1</GIVEN>
      <TABLE>0.42765891925820343 0.5723410807417966 0.7285577319958888 0.27144226800411114 0.6093197134743629 0.390680286525637 0.1893322298003014 0.8106677701996986 </TABLE>
    </DEFINITION>
    <DEFINITION>
      <FOR>3</FOR>
      <GIVEN>0</GIVEN>
      <GIVEN>2</GIVEN>
      <TABLE>0.16555363611245102 0.834446363887549 0.2947080048600093 0.7052919951399906 0.5731486597081841 0.42685134029181593 0.4926466179898322 0.5073533820101678 </TABLE>
    </DEFINITION>
    <DEFINITION>
      <FOR>4</FOR>
      <GIVEN>3</GIVEN>
      <TABLE>0.7205195596934579 0.27948044030654207 0.6954633621618478 0.3045366378381523 </TABLE>
    </DEFINITION>
    <DEFINITION>
      <FOR>5</FOR>
      <GIVEN>0</GIVEN>
      <GIVEN>3</GIVEN>
      <GIVEN>4</GIVEN>
      <TABLE>0.6529310054015912 0.34706899459840884 0.33616440562935956 0.6638355943706404 0.5253440130225714 0.47465598697742856 0.7588042008121482 0.24119579918785183 0.570229805731996 0.42977019426800395 0.5557899762882829 0.44421002371171714 0.3276825821884146 0.6723174178115853 0.5825486062312439 0.4174513937687562 </TABLE>
    </DEFINITION>
    <DEFINITION>
      <FOR>6</FOR>
      <GIVEN>5</GIVEN>
      <GIVEN>4</GIVEN>
      <TABLE>0.28394915214144156 0.7160508478585584 0.8428467349778522 0.15715326502214774 0.5190897668562862 0.48091023314371384 0.0765910025353448 0.9234089974646551 </TABLE>
    </DEFINITION>
    <DEFINITION>
      <FOR>7</FOR>
      <GIVEN>0</GIVEN>
      <GIVEN>4</GIVEN>
      <TABLE>0.006691063778779813 0.9933089362212202 0.18323363316796537 0.8167663668320346 0.5216021430230513 0.47839785697694864 0.030910163621612717 0.9690898363783873 </TABLE>
    </DEFINITION>
    <DEFINITION>
      <FOR>8</FOR>
      <GIVEN>3</GIVEN>
      <GIVEN>7</GIVEN>
      <TABLE>0.49499477040264783 0.5050052295973522 0.5688873665377908 0.4311126334622092 0.5480788124760351 0.45192118752396493 0.9607556172623266 0.0392443827376734 </TABLE>
    </DEFINITION>
    <DEFINITION>
      <FOR>9</FOR>
      <GIVEN>0</GIVEN>
      <GIVEN>3</GIVEN>
      <GIVEN>5</GIVEN>
      <GIVEN>8</GIVEN>
      <GIVEN>6</GIVEN>
      <TABLE>0.703372780693624 0.29662721930637603 0.5642344094846057 0.43576559051539426 0.4834364940407028 0.5165635059592971 0.7433088409299572 0.25669115907004275 0.6517056014752234 0.3482943985247766 0.310197476278139 0.689802523721861 0.5062793369775955 0.49372066302240447 0.5542827757730004 0.4457172242269996 0.3017730383407058 0.6982269616592942 0.5067410800126577 0.4932589199873422 0.5096340138479719 0.49036598615202814 0.6191543631767544 0.38084563682324557 0.6164541745384987 0.38354582546150123 0.08393083039288388 0.9160691696071162 0.6492090084314337 0.35079099156856625 0.3880156682566539 0.6119843317433462 0.9331277696329708 0.06687223036702912 0.020635231661792014 0.979364768338208 0.9777283870269534 0.02227161297304663 0.627451380734065 0.3725486192659349 0.4771252081782768 0.5228747918217233 0.5589750855881618 0.4410249144118382 0.8150655854951472 0.18493441450485287 0.4758464137510903 0.5241535862489097 0.6542723374758216 0.3457276625241784 0.4556940671462967 0.5443059328537034 0.5509582467598024 0.4490417532401975 0.9233771320213144 0.0766228679786856 0.20373226380010412 0.7962677361998959 0.0036931079459504215 0.9963068920540495 0.9313790525703181 0.06862094742968199 0.31812822414667974 0.6818717758533203 </TABLE>
    </DEFINITION>
  </NETWORK>
</BIF>
