<?xml version='1.0' encoding='utf-8'?>
<BIF VERSION="0.3">
  <NETWORK>
    <NAME>UNTITLED</NAME>
    <VARIABLE TYPE="nature">
      <NAME>0</NAME>
      <OUTCOME>0</OUTCOME>
      <OUTCOME>1</OUTCOME>
      <PROPERTY>weight = None</PROPERTY>
    </VARIABLE>
    <VARIABLE TYPE="nature">
      <NAME>1</NAME>
      <OUTCOME>0</OUTCOME>
      <OUTCOME>1</OUTCOME>
      <PROPERTY>weight = None</PROPERTY>
    </VARIABLE>
    <VARIABLE TYPE="nature">
      <NAME>2</NAME>
      <OUTCOME>0</OUTCOME>
      <OUTCOME>1</OUTCOME>
      <PROPERTY>weight = None</PROPERTY>
    </VARIABLE>
    <VARIABLE TYPE="nature">
      <NAME>3</NAME>
      <OUTCOME>0</OUTCOME>
      <OUTCOME>1</OUTCOME>
      <PROPERTY>weight = None</PROPERTY>
    </VARIABLE>
    <VARIABLE TYPE="nature">
      <NAME>4</NAME>
      <OUTCOME>0</OUTCOME>
      <OUTCOME>1</OUTCOME>
      <PROPERTY>weight = None</PROPERTY>
    </VARIABLE>
    <VARIABLE TYPE="nature">
      <NAME>5</NAME>
      <OUTCOME>0</OUTCOME>
      <OUTCOME>1</OUTCOME>
      <PROPERTY>weight = None</PROPERTY>
    </VARIABLE>
    <VARIABLE TYPE="nature">
      <NAME>6</NAME>
      <OUTCOME>0</OUTCOME>
      <OUTCOME>1</OUTCOME>
      <PROPERTY>weight = None</PROPERTY>
    </VARIABLE>
    <VARIABLE TYPE="nature">
      <NAME>7</NAME>
      <OUTCOME>0</OUTCOME>
      <OUTCOME>1</OUTCOME>
      <PROPERTY>weight = None</PROPERTY>
    </VARIABLE>
    <VARIABLE TYPE="nature">
      <NAME>8</NAME>
      <OUTCOME>0</OUTCOME>
      <OUTCOME>1</OUTCOME>
      <PROPERTY>weight = None</PROPERTY>
    </VARIABLE>
    <VARIABLE TYPE="nature">
      <NAME>9</NAME>
      <OUTCOME>0</OUTCOME>
      <OUTCOME>1</OUTCOME>
      <PROPERTY>weight = None</PROPERTY>
    </VARIABLE>
    <DEFINITION>
      <FOR>0</FOR>
      <TABLE>0.29734196966375614 0.7026580303362439 </TABLE>
    </DEFINITION>
    <DEFINITION>
      <FOR>1</FOR>
      <GIVEN>0</GIVEN>
      <TABLE>0.18431260504415461 0.8156873949558454 0.8764125850402039 0.12358741495979612 </TABLE>
    </DEFINITION>
    <DEFINITION>
      <FOR>2</FOR>
      <GIVEN>0</GIVEN>
      <TABLE>0.5990097625024957 0.4009902374975042 0.5305488861899051 0.46945111381009486 </TABLE>
    </DEFINITION>
    <DEFINITION>
      <FOR>3</FOR>
      <GIVEN>1</GIVEN>
      <TABLE>0.44544836045189035 0.5545516395481097 0.5846455002114395 0.41535449978856054 </TABLE>
    </DEFINITION>
    <DEFINITION>
      <FOR>4</FOR>
      <GIVEN>0</GIVEN>
      <GIVEN>2</GIVEN>
      <TABLE>0.4632909219419493 0.5367090780580507 0.6724875258437951 0.3275124741562048 0.049054450976977894 0.9509455490230221 0.6152168571260143 0.3847831428739857 </TABLE>
    </DEFINITION>
    <DEFINITION>
      <FOR>5</FOR>
      <GIVEN>1</GIVEN>
      <GIVEN>2</GIVEN>
      <GIVEN>4</GIVEN>
      <TABLE>0.5884806271828535 0.4115193728171464 0.4841301513245624 0.5158698486754376 0.9607337117264964 0.039266288273503654 0.6265510316897155 0.3734489683102845 0.4421637289349278 0.5578362710650722 0.40230748003235856 0.5976925199676414 0.424324111406606 0.575675888593394 0.3835249801475935 0.6164750198524065 </TABLE>
    </DEFINITION>
    <DEFINITION>
      <FOR>6</FOR>
      <GIVEN>0</GIVEN>
      <GIVEN>2</GIVEN>
      <GIVEN>4</GIVEN>
      <GIVEN>5</GIVEN>
      <TABLE>0.2816732018264618 0.7183267981735381 0.4543230721263353 0.5456769278736646 0.610738455386064 0.38926154461393603 0.13184235866607655 0.8681576413339235 0.33332726765146675 0.6666727323485332 0.5166871394816167 0.48331286051838335 0.5313640604587038 0.4686359395412963 0.6897397166215479 0.310260283378452 0.6332466204236726 0.3667533795763274 0.2997521610063659 0.7002478389936341 0.34804506156512505 0.651954938434875 0.5562983921523316 0.4437016078476684 0.3834095864746752 0.6165904135253246 0.44380929209535847 0.5561907079046416 0.46436208516090727 0.5356379148390927 0.752999619617094 0.24700038038290598 </TABLE>
    </DEFINITION>
    <DEFINITION>
      <FOR>7</FOR>
      <GIVEN>0</GIVEN>
      <GIVEN>2</GIVEN>
      <GIVEN>4</GIVEN>
      <TABLE>0.30258105998338364 0.6974189400166164 0.6077899818294968 0.3922100181705032 0.07372692986545297 0.9262730701345471 0.4489259914867516 0.5510740085132484 0.2338136120785483 0.7661863879214517 0.015804499408878063 0.9841955005911219 0.5868452192456347 0.41315478075436535 0.09422801145470415 0.9057719885452958 </TABLE>
    </DEFINITION>
    <DEFINITION>
      <FOR>8</FOR>
      <GIVEN>0</GIVEN>
      <GIVEN>1</GIVEN>
      <GIVEN>2</GIVEN>
      <TABLE>0.329604564262554 0.670395435737446 0.8924124879840347 0.1075875120159653 0.4369742578990364 0.5630257421009637 0.4655512282964667 0.5344487717035333 0.4512568628460229 0.5487431371539772 0.33582607377184615 0.6641739262281539 0.7912017379258033 0.20879826207419674 0.6992666560472373 0.3007333439527627 </TABLE>
    </DEFINITION>
    <DEFINITION>
      <FOR>9</FOR>
      <GIVEN>6</GIVEN>
      <GIVEN>7</GIVEN>
      <GIVEN>3</GIVEN>
      <GIVEN>5</GIVEN>
      <TABLE>0.45958287152771543 0.5404171284722846 0.5814488034316436 0.4185511965683564 0.6120921058904742 0.38790789410952575 0.3040614634895759 0.6959385365104241 0.2919757592581036 0.7080242407418964 0.5416677052528364 0.45833229474716347 0.2392184250040539 0.7607815749959461 0.3381704865686029 0.6618295134313972 0.4874093183404241 0.5125906816595758 0.3998329754575996 0.6001670245424003 0.5953907102053793 0.4046092897946207 0.6485859878179956 0.35141401218200446 0.789254593717919 0.21074540628208094 0.717699443233673 0.2823005567663271 0.35248821649680684 0.6475117835031932 0.9803112127100199 0.01968878728998011 </TABLE>
    </DEFINITION>
  </NETWORK>
</BIF>
