<?xml version='1.0' encoding='utf-8'?>
<BIF VERSION="0.3">
  <NETWORK>
    <NAME>UNTITLED</NAME>
    <VARIABLE TYPE="nature">
      <NAME>0</NAME>
      <OUTCOME>0</OUTCOME>
      <OUTCOME>1</OUTCOME>
      <PROPERTY>weight = None</PROPERTY>
    </VARIABLE>
    <VARIABLE TYPE="nature">
      <NAME>1</NAME>
      <OUTCOME>0</OUTCOME>
      <OUTCOME>1</OUTCOME>
      <PROPERTY>weight = None</PROPERTY>
    </VARIABLE>
    <VARIABLE TYPE="nature">
      <NAME>2</NAME>
      <OUTCOME>0</OUTCOME>
      <OUTCOME>1</OUTCOME>
      <PROPERTY>weight = None</PROPERTY>
    </VARIABLE>
    <VARIABLE TYPE="nature">
      <NAME>3</NAME>
      <OUTCOME>0</OUTCOME>
      <OUTCOME>1</OUTCOME>
      <PROPERTY>weight = None</PROPERTY>
    </VARIABLE>
    <VARIABLE TYPE="nature">
      <NAME>4</NAME>
      <OUTCOME>0</OUTCOME>
      <OUTCOME>1</OUTCOME>
      <PROPERTY>weight = None</PROPERTY>
    </VARIABLE>
    <VARIABLE TYPE="nature">
      <NAME>5</NAME>
      <OUTCOME>0</OUTCOME>
      <OUTCOME>1</OUTCOME>
      <PROPERTY>weight = None</PROPERTY>
    </VARIABLE>
    <VARIABLE TYPE="nature">
      <NAME>6</NAME>
      <OUTCOME>0</OUTCOME>
      <OUTCOME>1</OUTCOME>
      <PROPERTY>weight = None</PROPERTY>
    </VARIABLE>
    <VARIABLE TYPE="nature">
      <NAME>7</NAME>
      <OUTCOME>0</OUTCOME>
      <OUTCOME>1</OUTCOME>
      <PROPERTY>weight = None</PROPERTY>
    </VARIABLE>
    <VARIABLE TYPE="nature">
      <NAME>8</NAME>
      <OUTCOME>0</OUTCOME>
      <OUTCOME>1</OUTCOME>
      <PROPERTY>weight = None</PROPERTY>
    </VARIABLE>
    <VARIABLE TYPE="nature">
      <NAME>9</NAME>
      <OUTCOME>0</OUTCOME>
      <OUTCOME>1</OUTCOME>
      <PROPERTY>weight = None</PROPERTY>
    </VARIABLE>
    <DEFINITION>
      <FOR>0</FOR>
      <TABLE>0.14832539834530906 0.851674601654691 </TABLE>
    </DEFINITION>
    <DEFINITION>
      <FOR>1</FOR>
      <GIVEN>0</GIVEN>
      <TABLE>0.5606174605374075 0.4393825394625925 0.8336444247279535 0.16635557527204647 </TABLE>
    </DEFINITION>
    <DEFINITION>
      <FOR>2</FOR>
      <GIVEN>1</GIVEN>
      <TABLE>0.7435364069240554 0.2564635930759446 0.6289300005008025 0.3710699994991975 </TABLE>
    </DEFINITION>
    <DEFINITION>
      <FOR>3</FOR>
      <GIVEN>1</GIVEN>
      <GIVEN>2</GIVEN>
      <TABLE>0.9581976823393691 0.04180231766063093 0.805149079364231 0.19485092063576903 0.6197857096917385 0.38021429030826154 0.7999115907545888 0.20008840924541116 </TABLE>
    </DEFINITION>
    <DEFINITION>
      <FOR>4</FOR>
      <GIVEN>0</GIVEN>
      <TABLE>0.6920303983750552 0.30796960162494474 0.2906310357247105 0.7093689642752895 </TABLE>
    </DEFINITION>
    <DEFINITION>
      <FOR>5</FOR>
      <GIVEN>2</GIVEN>
      <GIVEN>3</GIVEN>
      <TABLE>0.6702673199639361 0.3297326800360639 0.060643209128503836 0.9393567908714962 0.05358837461844069 0.9464116253815593 0.5683819081012513 0.4316180918987487 </TABLE>
    </DEFINITION>
    <DEFINITION>
      <FOR>6</FOR>
      <GIVEN>4</GIVEN>
      <GIVEN>2</GIVEN>
      <TABLE>0.02742711854510701 0.972572881454893 0.43796706363345234 0.5620329363665476 0.5743347443941698 0.42566525560583035 0.2130267368765411 0.7869732631234588 </TABLE>
    </DEFINITION>
    <DEFINITION>
      <FOR>7</FOR>
      <GIVEN>0</GIVEN>
      <GIVEN>4</GIVEN>
      <GIVEN>5</GIVEN>
      <GIVEN>6</GIVEN>
      <TABLE>0.6094453562881545 0.3905546437118454 0.7219770503450678 0.2780229496549323 0.5564712971378697 0.4435287028621303 0.5208530564647778 0.47914694353522225 0.4500574364247266 0.5499425635752734 0.04520324814677363 0.9547967518532263 0.775553237036765 0.22444676296323496 0.2900192418774467 0.7099807581225533 0.4718111798162309 0.5281888201837691 0.2056310306197824 0.7943689693802176 0.49732614619989934 0.5026738538001008 0.762314989640999 0.23768501035900108 0.4116766294761588 0.5883233705238412 0.4200152249605526 0.5799847750394473 0.9501819962019219 0.049818003798078055 0.1872186269187001 0.8127813730812999 </TABLE>
    </DEFINITION>
    <DEFINITION>
      <FOR>8</FOR>
      <GIVEN>3</GIVEN>
      <TABLE>0.47322504127781884 0.526774958722181 0.3619542036746095 0.6380457963253905 </TABLE>
    </DEFINITION>
    <DEFINITION>
      <FOR>9</FOR>
      <GIVEN>0</GIVEN>
      <GIVEN>1</GIVEN>
      <GIVEN>4</GIVEN>
      <GIVEN>6</GIVEN>
      <GIVEN>8</GIVEN>
      <TABLE>0.6631704444583254 0.3368295555416747 0.387852357240512 0.612147642759488 0.6003489162331547 0.39965108376684527 0.0013009093573826025 0.9986990906426174 0.8431408180202526 0.15685918197974738 0.4571187672669383 0.5428812327330617 0.7361461218009533 0.2638538781990467 0.5330953600813366 0.4669046399186634 0.21198428212907441 0.7880157178709256 0.2969103929042586 0.7030896070957414 0.5512774491546553 0.44872255084534485 0.3787853195809744 0.6212146804190256 0.5743635847500667 0.4256364152499333 0.8572087526428006 0.14279124735719936 0.7010152978950746 0.2989847021049255 0.30274666724027627 0.6972533327597238 0.5488873418833492 0.45111265811665086 0.9237703228388533 0.07622967716114672 0.6202182905844154 0.3797817094155847 0.47992807889952693 0.5200719211004731 0.7049332373758146 0.2950667626241854 0.7844181449237022 0.2155818550762978 0.5692881423737756 0.43071185762622444 0.6351104167136883 0.3648895832863118 0.49778737273788504 0.502212627262115 0.639733750726451 0.36026624927354906 0.7496323141621533 0.2503676858378467 0.7702084322117116 0.2297915677882883 0.7323482366304366 0.26765176336956337 0.358379076018963 0.641620923981037 0.2787963418555619 0.7212036581444381 0.9786383897274736 0.021361610272526338 </TABLE>
    </DEFINITION>
  </NETWORK>
</BIF>
