<?xml version='1.0' encoding='utf-8'?>
<BIF VERSION="0.3">
  <NETWORK>
    <NAME>UNTITLED</NAME>
    <VARIABLE TYPE="nature">
      <NAME>0</NAME>
      <OUTCOME>0</OUTCOME>
      <OUTCOME>1</OUTCOME>
      <PROPERTY>weight = None</PROPERTY>
    </VARIABLE>
    <VARIABLE TYPE="nature">
      <NAME>1</NAME>
      <OUTCOME>0</OUTCOME>
      <OUTCOME>1</OUTCOME>
      <PROPERTY>weight = None</PROPERTY>
    </VARIABLE>
    <VARIABLE TYPE="nature">
      <NAME>2</NAME>
      <OUTCOME>0</OUTCOME>
      <OUTCOME>1</OUTCOME>
      <PROPERTY>weight = None</PROPERTY>
    </VARIABLE>
    <VARIABLE TYPE="nature">
      <NAME>3</NAME>
      <OUTCOME>0</OUTCOME>
      <OUTCOME>1</OUTCOME>
      <PROPERTY>weight = None</PROPERTY>
    </VARIABLE>
    <VARIABLE TYPE="nature">
      <NAME>4</NAME>
      <OUTCOME>0</OUTCOME>
      <OUTCOME>1</OUTCOME>
      <PROPERTY>weight = None</PROPERTY>
    </VARIABLE>
    <VARIABLE TYPE="nature">
      <NAME>5</NAME>
      <OUTCOME>0</OUTCOME>
      <OUTCOME>1</OUTCOME>
      <PROPERTY>weight = None</PROPERTY>
    </VARIABLE>
    <VARIABLE TYPE="nature">
      <NAME>6</NAME>
      <OUTCOME>0</OUTCOME>
      <OUTCOME>1</OUTCOME>
      <PROPERTY>weight = None</PROPERTY>
    </VARIABLE>
    <VARIABLE TYPE="nature">
      <NAME>7</NAME>
      <OUTCOME>0</OUTCOME>
      <OUTCOME>1</OUTCOME>
      <PROPERTY>weight = None</PROPERTY>
    </VARIABLE>
    <VARIABLE TYPE="nature">
      <NAME>8</NAME>
      <OUTCOME>0</OUTCOME>
      <OUTCOME>1</OUTCOME>
      <PROPERTY>weight = None</PROPERTY>
    </VARIABLE>
    <VARIABLE TYPE="nature">
      <NAME>9</NAME>
      <OUTCOME>0</OUTCOME>
      <OUTCOME>1</OUTCOME>
      <PROPERTY>weight = None</PROPERTY>
    </VARIABLE>
    <DEFINITION>
      <FOR>0</FOR>
      <TABLE>0.5170764182299761 0.4829235817700239 </TABLE>
    </DEFINITION>
    <DEFINITION>
      <FOR>1</FOR>
      <GIVEN>0</GIVEN>
      <TABLE>0.9419996774124435 0.05800032258755646 0.26039334396443575 0.7396066560355643 </TABLE>
    </DEFINITION>
    <DEFINITION>
      <FOR>2</FOR>
      <GIVEN>0</GIVEN>
      <TABLE>0.7748512545451796 0.22514874545482047 0.5345213273217896 0.46547867267821047 </TABLE>
    </DEFINITION>
    <DEFINITION>
      <FOR>3</FOR>
      <GIVEN>0</GIVEN>
      <GIVEN>1</GIVEN>
      <GIVEN>2</GIVEN>
      <TABLE>0.3831613007319213 0.6168386992680787 0.3968015604580197 0.6031984395419804 0.5442002131632802 0.4557997868367198 0.6955617376190331 0.30443826238096694 0.29404198986418256 0.7059580101358174 0.7698821747763441 0.23011782522365587 0.31237332492949194 0.6876266750705081 0.5151151089395503 0.4848848910604497 </TABLE>
    </DEFINITION>
    <DEFINITION>
      <FOR>4</FOR>
      <GIVEN>0</GIVEN>
      <GIVEN>1</GIVEN>
      <GIVEN>2</GIVEN>
      <TABLE>0.4235533922115205 0.5764466077884796 0.559282439097588 0.44071756090241204 0.5637815810369282 0.43621841896307184 0.234699852811566 0.765300147188434 0.4286752805562657 0.5713247194437343 0.41245329003869974 0.5875467099613003 0.5925074523967562 0.4074925476032439 0.6035626046286717 0.39643739537132827 </TABLE>
    </DEFINITION>
    <DEFINITION>
      <FOR>5</FOR>
      <GIVEN>1</GIVEN>
      <GIVEN>3</GIVEN>
      <TABLE>0.8697628328516206 0.13023716714837935 0.39519761132529874 0.6048023886747013 0.1314883334912053 0.8685116665087947 0.7269088691072642 0.27309113089273584 </TABLE>
    </DEFINITION>
    <DEFINITION>
      <FOR>6</FOR>
      <GIVEN>2</GIVEN>
      <GIVEN>5</GIVEN>
      <TABLE>0.16598577241449028 0.8340142275855098 0.5871703635836726 0.41282963641632736 0.7256550899382727 0.27434491006172734 0.6076360457386946 0.39236395426130544 </TABLE>
    </DEFINITION>
    <DEFINITION>
      <FOR>7</FOR>
      <GIVEN>0</GIVEN>
      <GIVEN>1</GIVEN>
      <GIVEN>2</GIVEN>
      <GIVEN>3</GIVEN>
      <GIVEN>4</GIVEN>
      <GIVEN>5</GIVEN>
      <TABLE>0.491903433304971 0.508096566695029 0.1851661995768255 0.8148338004231745 0.5266593513321898 0.47334064866781017 0.9601535720230495 0.03984642797695049 0.9417394742761203 0.05826052572387975 0.9252766238992755 0.07472337610072458 0.6793212362895863 0.32067876371041365 0.38733219396627744 0.6126678060337225 0.8760895488011123 0.1239104511988877 0.5493478417767733 0.4506521582232266 0.968024766472277 0.03197523352772297 0.08408098716213729 0.9159190128378627 0.7937010467419406 0.2062989532580593 0.2832962209296873 0.7167037790703127 0.4343938066991845 0.5656061933008156 0.8260788964977676 0.1739211035022325 0.5674459347989573 0.43255406520104267 0.6452839302097239 0.35471606979027603 0.35829469669441505 0.6417053033055851 0.0034219856170197484 0.9965780143829802 0.2790689442233339 0.7209310557766662 0.4128829473346458 0.5871170526653543 0.8318873446494375 0.16811265535056255 0.38215769563329444 0.6178423043667055 0.26483896762747877 0.7351610323725212 0.7633994075445438 0.23660059245545612 0.4531235042963577 0.5468764957036423 0.32804399073874485 0.6719560092612552 0.7762026554050515 0.22379734459494852 0.9804419693831965 0.01955803061680349 0.012046345366024426 0.9879536546339756 0.45747026793838574 0.5425297320616144 0.5227895207036766 0.4772104792963235 0.5473361588903073 0.45266384110969266 0.11981829932345903 0.880181700676541 0.7906559477082832 0.20934405229171688 0.42982191164509836 0.5701780883549017 0.6383467446668031 0.3616532553331969 0.624515043972722 0.3754849560272781 0.8232525629971589 0.17674743700284115 0.12110581429321712 0.8788941857067829 0.5135022833519518 0.48649771664804814 0.5961408989551243 0.40385910104487566 0.41564705017299197 0.5843529498270079 0.4823199928354833 0.5176800071645167 0.05119850031446009 0.94880149968554 0.5793008822708926 0.4206991177291075 0.7034677397518864 0.29653226024811374 0.20289974849965248 0.7971002515003476 0.46829407258518874 0.5317059274148113 0.15713353747238729 0.8428664625276127 0.2608328270938519 0.7391671729061481 0.7454804904370452 0.2545195095629548 0.8593695664195292 0.1406304335804708 0.8270603441110042 0.17293965588899582 0.49317166094920983 0.5068283390507902 0.6832086891538849 0.31679131084611506 0.41311379090364025 0.5868862090963597 0.45748045852305447 0.5425195414769456 0.3836071475672579 0.6163928524327421 0.4965788050181411 0.503421194981859 0.5918250235707185 0.40817497642928147 0.6198215443810743 0.38017845561892566 0.9054152641576722 0.09458473584232788 </TABLE>
    </DEFINITION>
    <DEFINITION>
      <FOR>8</FOR>
      <GIVEN>0</GIVEN>
      <GIVEN>1</GIVEN>
      <TABLE>0.764759955989744 0.23524004401025606 0.4854984783349997 0.5145015216650004 0.6438844579418653 0.35611554205813467 0.12588806278521214 0.8741119372147879 </TABLE>
    </DEFINITION>
    <DEFINITION>
      <FOR>9</FOR>
      <GIVEN>2</GIVEN>
      <GIVEN>3</GIVEN>
      <GIVEN>8</GIVEN>
      <GIVEN>6</GIVEN>
      <TABLE>0.6634152882430931 0.3365847117569069 0.6207453497297097 0.37925465027029026 0.7101542755711875 0.2898457244288124 0.5576608254875942 0.44233917451240573 0.4115130777288646 0.5884869222711354 0.17430054833804248 0.8256994516619575 0.736617973876625 0.263382026123375 0.7523752806990807 0.2476247193009192 0.4153506871795594 0.5846493128204406 0.06494639715950296 0.935053602840497 0.12889720193779222 0.8711027980622078 0.8792503089134077 0.12074969108659231 0.15075365445537064 0.8492463455446294 0.581202928496248 0.4187970715037519 0.9172970293185341 0.08270297068146595 0.6812018368330638 0.31879816316693615 </TABLE>
    </DEFINITION>
  </NETWORK>
</BIF>
