<?xml version='1.0' encoding='utf-8'?>
<BIF VERSION="0.3">
  <NETWORK>
    <NAME>UNTITLED</NAME>
    <VARIABLE TYPE="nature">
      <NAME>0</NAME>
      <OUTCOME>0</OUTCOME>
      <OUTCOME>1</OUTCOME>
      <PROPERTY>weight = None</PROPERTY>
    </VARIABLE>
    <VARIABLE TYPE="nature">
      <NAME>1</NAME>
      <OUTCOME>0</OUTCOME>
      <OUTCOME>1</OUTCOME>
      <PROPERTY>weight = None</PROPERTY>
    </VARIABLE>
    <VARIABLE TYPE="nature">
      <NAME>2</NAME>
      <OUTCOME>0</OUTCOME>
      <OUTCOME>1</OUTCOME>
      <PROPERTY>weight = None</PROPERTY>
    </VARIABLE>
    <VARIABLE TYPE="nature">
      <NAME>3</NAME>
      <OUTCOME>0</OUTCOME>
      <OUTCOME>1</OUTCOME>
      <PROPERTY>weight = None</PROPERTY>
    </VARIABLE>
    <VARIABLE TYPE="nature">
      <NAME>4</NAME>
      <OUTCOME>0</OUTCOME>
      <OUTCOME>1</OUTCOME>
      <PROPERTY>weight = None</PROPERTY>
    </VARIABLE>
    <VARIABLE TYPE="nature">
      <NAME>5</NAME>
      <OUTCOME>0</OUTCOME>
      <OUTCOME>1</OUTCOME>
      <PROPERTY>weight = None</PROPERTY>
    </VARIABLE>
    <VARIABLE TYPE="nature">
      <NAME>6</NAME>
      <OUTCOME>0</OUTCOME>
      <OUTCOME>1</OUTCOME>
      <PROPERTY>weight = None</PROPERTY>
    </VARIABLE>
    <VARIABLE TYPE="nature">
      <NAME>7</NAME>
      <OUTCOME>0</OUTCOME>
      <OUTCOME>1</OUTCOME>
      <PROPERTY>weight = None</PROPERTY>
    </VARIABLE>
    <VARIABLE TYPE="nature">
      <NAME>8</NAME>
      <OUTCOME>0</OUTCOME>
      <OUTCOME>1</OUTCOME>
      <PROPERTY>weight = None</PROPERTY>
    </VARIABLE>
    <VARIABLE TYPE="nature">
      <NAME>9</NAME>
      <OUTCOME>0</OUTCOME>
      <OUTCOME>1</OUTCOME>
      <PROPERTY>weight = None</PROPERTY>
    </VARIABLE>
    <DEFINITION>
      <FOR>0</FOR>
      <TABLE>0.030421095991172414 0.9695789040088276 </TABLE>
    </DEFINITION>
    <DEFINITION>
      <FOR>1</FOR>
      <TABLE>0.577544734740511 0.4224552652594889 </TABLE>
    </DEFINITION>
    <DEFINITION>
      <FOR>2</FOR>
      <TABLE>0.9161469544210921 0.08385304557890791 </TABLE>
    </DEFINITION>
    <DEFINITION>
      <FOR>3</FOR>
      <GIVEN>0</GIVEN>
      <GIVEN>1</GIVEN>
      <GIVEN>2</GIVEN>
      <TABLE>0.5998248175525198 0.40017518244748024 0.7755753467557449 0.22442465324425503 0.9259237643714328 0.0740762356285672 0.20919644891150918 0.7908035510884909 0.9696517866782237 0.030348213321776295 0.2711901656496284 0.7288098343503716 0.34016265472908824 0.6598373452709116 0.4420192085270444 0.5579807914729557 </TABLE>
    </DEFINITION>
    <DEFINITION>
      <FOR>4</FOR>
      <GIVEN>0</GIVEN>
      <GIVEN>3</GIVEN>
      <GIVEN>2</GIVEN>
      <TABLE>0.44306978923098195 0.556930210769018 0.5671587304737433 0.4328412695262567 0.590809866737078 0.4091901332629221 0.5019582554646203 0.49804174453537975 0.6462071191499176 0.3537928808500825 0.25936323091566 0.7406367690843401 0.9513408217483331 0.048659178251666824 0.10533283423858598 0.8946671657614139 </TABLE>
    </DEFINITION>
    <DEFINITION>
      <FOR>5</FOR>
      <GIVEN>0</GIVEN>
      <GIVEN>1</GIVEN>
      <GIVEN>2</GIVEN>
      <TABLE>0.9727783988550219 0.027221601144977983 0.6378575075686845 0.36214249243131547 0.3982182686439575 0.6017817313560426 0.6012863275427185 0.39871367245728145 0.7510252542352397 0.24897474576476028 0.7973315196083597 0.20266848039164034 0.3258531610038469 0.674146838996153 0.8441911632740365 0.15580883672596357 </TABLE>
    </DEFINITION>
    <DEFINITION>
      <FOR>6</FOR>
      <GIVEN>5</GIVEN>
      <GIVEN>2</GIVEN>
      <TABLE>0.7758783071750789 0.2241216928249211 0.387421861459538 0.6125781385404621 0.34453754255396984 0.6554624574460302 0.43874515131335534 0.5612548486866447 </TABLE>
    </DEFINITION>
    <DEFINITION>
      <FOR>7</FOR>
      <GIVEN>1</GIVEN>
      <TABLE>0.47792252371981125 0.5220774762801887 0.48424553419273403 0.515754465807266 </TABLE>
    </DEFINITION>
    <DEFINITION>
      <FOR>8</FOR>
      <GIVEN>0</GIVEN>
      <GIVEN>3</GIVEN>
      <GIVEN>4</GIVEN>
      <GIVEN>1</GIVEN>
      <GIVEN>2</GIVEN>
      <TABLE>0.28555352879689583 0.7144464712031041 0.8772547774458819 0.12274522255411811 0.9729190193068825 0.027080980693117523 0.8824659736621151 0.11753402633788491 0.9452865258564208 0.054713474143579334 0.2783522135417144 0.7216477864582856 0.5520700627799693 0.4479299372200307 0.4726616850975065 0.5273383149024935 0.7165538721165267 0.28344612788347334 0.5379004593787093 0.4620995406212906 0.8509851061616859 0.14901489383831412 0.671295598962999 0.32870440103700105 0.274370900855261 0.7256290991447392 0.3623214579681075 0.6376785420318924 0.053490928703684375 0.9465090712963157 0.5224413513687315 0.4775586486312684 0.4946398165358863 0.5053601834641138 0.4733281009801767 0.5266718990198233 0.42330574986014113 0.5766942501398589 0.5818929043665031 0.41810709563349696 0.46453804540204086 0.5354619545979591 0.2594294010918196 0.7405705989081803 0.4652593889426768 0.5347406110573232 0.3290033853950713 0.6709966146049287 0.0686614319906032 0.9313385680093968 0.595785861328132 0.40421413867186795 0.35417471954202145 0.6458252804579787 0.7471167357591 0.25288326424089996 0.01937828092481003 0.98062171907519 0.3658737667513064 0.6341262332486935 0.7387461191237166 0.26125388087628343 0.8101254577204224 0.18987454227957762 </TABLE>
    </DEFINITION>
    <DEFINITION>
      <FOR>9</FOR>
      <GIVEN>0</GIVEN>
      <GIVEN>3</GIVEN>
      <GIVEN>5</GIVEN>
      <GIVEN>8</GIVEN>
      <GIVEN>2</GIVEN>
      <TABLE>0.7050138315638426 0.29498616843615744 0.7748492047923519 0.2251507952076481 0.5232904665481638 0.47670953345183614 0.5572094653407567 0.44279053465924345 0.5252340923741485 0.4747659076258515 0.577063446103142 0.42293655389685797 0.7737544797748507 0.22624552022514935 0.3762055477428634 0.6237944522571367 0.9086600474238851 0.09133995257611496 0.38312909138585494 0.6168709086141451 0.6862733188575287 0.3137266811424714 0.5367483678231217 0.4632516321768782 0.487044595681141 0.512955404318859 0.43175783191052963 0.5682421680894704 0.40019692474310803 0.599803075256892 0.48728308417209426 0.5127169158279057 0.6828093597311482 0.3171906402688518 0.6409627089744119 0.3590372910255881 0.41273121869454577 0.5872687813054542 0.3300004054688624 0.6699995945311377 0.7334456934224288 0.2665543065775713 0.09814653560136007 0.9018534643986399 0.7250262410344636 0.2749737589655365 0.34146724219287594 0.6585327578071241 0.15558281958163045 0.8444171804183696 0.6890870729024612 0.3109129270975388 0.3291066507953876 0.6708933492046124 0.48526458553579016 0.5147354144642099 0.5487362770894797 0.4512637229105204 0.9124383397594868 0.0875616602405131 0.4361209696340985 0.5638790303659015 0.4225626301811315 0.5774373698188685 </TABLE>
    </DEFINITION>
  </NETWORK>
</BIF>
