<?xml version='1.0' encoding='utf-8'?>
<BIF VERSION="0.3">
  <NETWORK>
    <NAME>UNTITLED</NAME>
    <VARIABLE TYPE="nature">
      <NAME>0</NAME>
      <OUTCOME>0</OUTCOME>
      <OUTCOME>1</OUTCOME>
      <PROPERTY>weight = None</PROPERTY>
    </VARIABLE>
    <VARIABLE TYPE="nature">
      <NAME>1</NAME>
      <OUTCOME>0</OUTCOME>
      <OUTCOME>1</OUTCOME>
      <PROPERTY>weight = None</PROPERTY>
    </VARIABLE>
    <VARIABLE TYPE="nature">
      <NAME>2</NAME>
      <OUTCOME>0</OUTCOME>
      <OUTCOME>1</OUTCOME>
      <PROPERTY>weight = None</PROPERTY>
    </VARIABLE>
    <VARIABLE TYPE="nature">
      <NAME>3</NAME>
      <OUTCOME>0</OUTCOME>
      <OUTCOME>1</OUTCOME>
      <PROPERTY>weight = None</PROPERTY>
    </VARIABLE>
    <VARIABLE TYPE="nature">
      <NAME>4</NAME>
      <OUTCOME>0</OUTCOME>
      <OUTCOME>1</OUTCOME>
      <PROPERTY>weight = None</PROPERTY>
    </VARIABLE>
    <VARIABLE TYPE="nature">
      <NAME>5</NAME>
      <OUTCOME>0</OUTCOME>
      <OUTCOME>1</OUTCOME>
      <PROPERTY>weight = None</PROPERTY>
    </VARIABLE>
    <VARIABLE TYPE="nature">
      <NAME>6</NAME>
      <OUTCOME>0</OUTCOME>
      <OUTCOME>1</OUTCOME>
      <PROPERTY>weight = None</PROPERTY>
    </VARIABLE>
    <VARIABLE TYPE="nature">
      <NAME>7</NAME>
      <OUTCOME>0</OUTCOME>
      <OUTCOME>1</OUTCOME>
      <PROPERTY>weight = None</PROPERTY>
    </VARIABLE>
    <VARIABLE TYPE="nature">
      <NAME>8</NAME>
      <OUTCOME>0</OUTCOME>
      <OUTCOME>1</OUTCOME>
      <PROPERTY>weight = None</PROPERTY>
    </VARIABLE>
    <VARIABLE TYPE="nature">
      <NAME>9</NAME>
      <OUTCOME>0</OUTCOME>
      <OUTCOME>1</OUTCOME>
      <PROPERTY>weight = None</PROPERTY>
    </VARIABLE>
    <DEFINITION>
      <FOR>0</FOR>
      <TABLE>0.7712936914960269 0.22870630850397308 </TABLE>
    </DEFINITION>
    <DEFINITION>
      <FOR>1</FOR>
      <TABLE>0.8500948923062206 0.1499051076937794 </TABLE>
    </DEFINITION>
    <DEFINITION>
      <FOR>2</FOR>
      <GIVEN>0</GIVEN>
      <GIVEN>1</GIVEN>
      <TABLE>0.2532771690932068 0.7467228309067933 0.3109833989869883 0.6890166010130117 0.2746719532358396 0.7253280467641605 0.8724175719937696 0.12758242800623043 </TABLE>
    </DEFINITION>
    <DEFINITION>
      <FOR>3</FOR>
      <TABLE>0.24037799823991143 0.7596220017600885 </TABLE>
    </DEFINITION>
    <DEFINITION>
      <FOR>4</FOR>
      <GIVEN>0</GIVEN>
      <TABLE>0.6063340979019709 0.39366590209802904 0.2182809729360421 0.7817190270639579 </TABLE>
    </DEFINITION>
    <DEFINITION>
      <FOR>5</FOR>
      <GIVEN>2</GIVEN>
      <TABLE>0.0915786282628942 0.9084213717371058 0.4940658383638393 0.5059341616361606 </TABLE>
    </DEFINITION>
    <DEFINITION>
      <FOR>6</FOR>
      <GIVEN>1</GIVEN>
      <GIVEN>5</GIVEN>
      <TABLE>0.32730576945650963 0.6726942305434903 0.2845172070558209 0.715482792944179 0.3797244066453183 0.6202755933546816 0.9546455437625605 0.04535445623743955 </TABLE>
    </DEFINITION>
    <DEFINITION>
      <FOR>7</FOR>
      <GIVEN>0</GIVEN>
      <GIVEN>3</GIVEN>
      <TABLE>0.8062827912838831 0.19371720871611683 0.6696251251059357 0.3303748748940642 0.5119589652488565 0.4880410347511435 0.546636419172923 0.453363580827077 </TABLE>
    </DEFINITION>
    <DEFINITION>
      <FOR>8</FOR>
      <GIVEN>0</GIVEN>
      <GIVEN>1</GIVEN>
      <GIVEN>6</GIVEN>
      <GIVEN>5</GIVEN>
      <GIVEN>3</GIVEN>
      <TABLE>0.7372019076603549 0.262798092339645 0.34898082398077634 0.6510191760192237 0.49650288936759646 0.5034971106324035 0.508735187514946 0.4912648124850541 0.9770564113006321 0.02294358869936788 0.30193849666772543 0.6980615033322746 0.1775652969541399 0.8224347030458601 0.21403386463184715 0.7859661353681529 0.22252942652399926 0.7774705734760007 0.8123511928892135 0.1876488071107865 0.06239819371931089 0.9376018062806891 0.6767751312780452 0.3232248687219548 0.5806952738615024 0.41930472613849756 0.49175956303976676 0.5082404369602332 0.5213750508348097 0.4786249491651903 0.5624885798578125 0.43751142014218747 0.5151267988073599 0.4848732011926401 0.45428062756657395 0.5457193724334262 0.5228780084862996 0.47712199151370044 0.199138096390273 0.800861903609727 0.26384575182651904 0.736154248173481 0.545971278980884 0.45402872101911607 0.4001445909068987 0.5998554090931013 0.9524597820127735 0.04754021798722653 0.14452296645070103 0.8554770335492989 0.5680801655177987 0.43191983448220117 0.24574634526279948 0.7542536547372006 0.0913780553446997 0.9086219446553002 0.8769653894416045 0.12303461055839551 0.27303325819928126 0.7269667418007189 0.7882490867403467 0.21175091325965334 0.20086846701740155 0.7991315329825984 </TABLE>
    </DEFINITION>
    <DEFINITION>
      <FOR>9</FOR>
      <GIVEN>0</GIVEN>
      <GIVEN>7</GIVEN>
      <GIVEN>1</GIVEN>
      <GIVEN>5</GIVEN>
      <TABLE>0.622910676461322 0.3770893235386779 0.019680553150932947 0.980319446849067 0.6118080557431693 0.3881919442568307 0.39852026221507236 0.6014797377849276 0.7563177763095439 0.24368222369045606 0.8140124959668029 0.18598750403319705 0.8209588397303927 0.17904116026960726 0.4873832118008941 0.5126167881991059 0.08986607723638074 0.9101339227636193 0.30496059249189833 0.6950394075081017 0.44623978812821447 0.5537602118717855 0.3445155289112678 0.6554844710887322 0.042946633213960535 0.9570533667860395 0.7634152860383246 0.23658471396167535 0.28236778924396183 0.7176322107560381 0.6527863318183484 0.3472136681816516 </TABLE>
    </DEFINITION>
  </NETWORK>
</BIF>
