<?xml version='1.0' encoding='utf-8'?>
<BIF VERSION="0.3">
  <NETWORK>
    <NAME>UNTITLED</NAME>
    <VARIABLE TYPE="nature">
      <NAME>0</NAME>
      <OUTCOME>0</OUTCOME>
      <OUTCOME>1</OUTCOME>
      <PROPERTY>weight = None</PROPERTY>
    </VARIABLE>
    <VARIABLE TYPE="nature">
      <NAME>1</NAME>
      <OUTCOME>0</OUTCOME>
      <OUTCOME>1</OUTCOME>
      <PROPERTY>weight = None</PROPERTY>
    </VARIABLE>
    <VARIABLE TYPE="nature">
      <NAME>2</NAME>
      <OUTCOME>0</OUTCOME>
      <OUTCOME>1</OUTCOME>
      <PROPERTY>weight = None</PROPERTY>
    </VARIABLE>
    <VARIABLE TYPE="nature">
      <NAME>3</NAME>
      <OUTCOME>0</OUTCOME>
      <OUTCOME>1</OUTCOME>
      <PROPERTY>weight = None</PROPERTY>
    </VARIABLE>
    <VARIABLE TYPE="nature">
      <NAME>4</NAME>
      <OUTCOME>0</OUTCOME>
      <OUTCOME>1</OUTCOME>
      <PROPERTY>weight = None</PROPERTY>
    </VARIABLE>
    <VARIABLE TYPE="nature">
      <NAME>5</NAME>
      <OUTCOME>0</OUTCOME>
      <OUTCOME>1</OUTCOME>
      <PROPERTY>weight = None</PROPERTY>
    </VARIABLE>
    <VARIABLE TYPE="nature">
      <NAME>6</NAME>
      <OUTCOME>0</OUTCOME>
      <OUTCOME>1</OUTCOME>
      <PROPERTY>weight = None</PROPERTY>
    </VARIABLE>
    <VARIABLE TYPE="nature">
      <NAME>7</NAME>
      <OUTCOME>0</OUTCOME>
      <OUTCOME>1</OUTCOME>
      <PROPERTY>weight = None</PROPERTY>
    </VARIABLE>
    <VARIABLE TYPE="nature">
      <NAME>8</NAME>
      <OUTCOME>0</OUTCOME>
      <OUTCOME>1</OUTCOME>
      <PROPERTY>weight = None</PROPERTY>
    </VARIABLE>
    <VARIABLE TYPE="nature">
      <NAME>9</NAME>
      <OUTCOME>0</OUTCOME>
      <OUTCOME>1</OUTCOME>
      <PROPERTY>weight = None</PROPERTY>
    </VARIABLE>
    <DEFINITION>
      <FOR>0</FOR>
      <TABLE>0.41866880112175786 0.5813311988782421 </TABLE>
    </DEFINITION>
    <DEFINITION>
      <FOR>1</FOR>
      <TABLE>0.2276331891534197 0.7723668108465803 </TABLE>
    </DEFINITION>
    <DEFINITION>
      <FOR>2</FOR>
      <GIVEN>1</GIVEN>
      <TABLE>0.05644734336242385 0.9435526566375761 0.309405666264138 0.6905943337358621 </TABLE>
    </DEFINITION>
    <DEFINITION>
      <FOR>3</FOR>
      <TABLE>0.4533335577134229 0.5466664422865771 </TABLE>
    </DEFINITION>
    <DEFINITION>
      <FOR>4</FOR>
      <GIVEN>0</GIVEN>
      <GIVEN>3</GIVEN>
      <TABLE>0.11809703485080987 0.8819029651491901 0.39163570174641515 0.6083642982535848 0.772570400527268 0.22742959947273206 0.5490908068051995 0.4509091931948005 </TABLE>
    </DEFINITION>
    <DEFINITION>
      <FOR>5</FOR>
      <GIVEN>2</GIVEN>
      <GIVEN>3</GIVEN>
      <TABLE>0.5990183968016053 0.40098160319839476 0.9591163694087109 0.04088363059128903 0.22236157467627626 0.7776384253237237 0.6359262200216224 0.3640737799783777 </TABLE>
    </DEFINITION>
    <DEFINITION>
      <FOR>6</FOR>
      <GIVEN>2</GIVEN>
      <TABLE>0.7603803197413946 0.2396196802586054 0.5011321366085038 0.49886786339149614 </TABLE>
    </DEFINITION>
    <DEFINITION>
      <FOR>7</FOR>
      <GIVEN>5</GIVEN>
      <TABLE>0.9057246411984393 0.0942753588015607 0.44314740283278803 0.556852597167212 </TABLE>
    </DEFINITION>
    <DEFINITION>
      <FOR>8</FOR>
      <GIVEN>4</GIVEN>
      <GIVEN>1</GIVEN>
      <GIVEN>2</GIVEN>
      <GIVEN>5</GIVEN>
      <GIVEN>6</GIVEN>
      <GIVEN>3</GIVEN>
      <TABLE>0.43865115664020915 0.5613488433597909 0.41108796765505984 0.5889120323449402 0.25033731156130484 0.7496626884386952 0.516528883168882 0.4834711168311179 0.5959926923402372 0.4040073076597628 0.5496503535527547 0.45034964644724534 0.12061261328742144 0.8793873867125784 0.3108685311928424 0.6891314688071577 0.4871151812008233 0.5128848187991767 0.2964296363559276 0.7035703636440723 0.4907429819041785 0.5092570180958215 0.6273995223413354 0.3726004776586646 0.6488769808288656 0.3511230191711345 0.24780624162632117 0.7521937583736789 0.9636861078867545 0.03631389211324551 0.5126544069041625 0.4873455930958376 0.7953742047562271 0.20462579524377292 0.23120891035769062 0.7687910896423094 0.6385163429522743 0.3614836570477257 0.29036821291990533 0.7096317870800947 0.4453281852541728 0.5546718147458272 0.971271293635908 0.028728706364092006 0.5078210885614325 0.4921789114385674 0.5050783226280587 0.49492167737194126 0.2895270254700652 0.7104729745299349 0.695997539414319 0.30400246058568103 0.3381297161107279 0.661870283889272 0.2755501362035336 0.7244498637964665 0.8329654231001066 0.1670345768998934 0.5708349914477234 0.42916500855227646 0.08114823638519458 0.9188517636148054 0.45430354118624267 0.5456964588137573 0.8690158826729131 0.13098411732708695 0.5578963287350367 0.4421036712649633 0.4286361797651156 0.5713638202348844 0.7812917439108037 0.21870825608919636 0.39787630100888677 0.6021236989911133 0.46472754193195437 0.5352724580680456 0.5411419798477318 0.4588580201522681 0.30379328523984045 0.6962067147601596 0.43212164353637017 0.5678783564636298 0.0938440446662886 0.9061559553337114 0.3540213387956358 0.6459786612043642 0.386481334527822 0.613518665472178 0.20119554445668056 0.7988044555433195 0.11752737312615384 0.8824726268738462 0.6183114000199269 0.3816885999800731 0.6431855228887388 0.3568144771112612 0.1711657189538024 0.8288342810461976 0.5083049344234095 0.4916950655765905 0.2176653447507305 0.7823346552492695 0.5009888406231074 0.4990111593768927 0.5995656744791503 0.4004343255208496 0.49239373388383145 0.5076062661161685 0.42093757725769926 0.5790624227423007 0.5308029542202257 0.4691970457797742 0.16868816116732419 0.8313118388326758 0.5186941521721508 0.48130584782784935 0.712414959912923 0.28758504008707697 0.7345438466935902 0.2654561533064098 0.7224915331695687 0.27750846683043123 0.3983659947557418 0.6016340052442583 0.8178777541716951 0.18212224582830497 0.6894220292657128 0.3105779707342872 </TABLE>
    </DEFINITION>
    <DEFINITION>
      <FOR>9</FOR>
      <GIVEN>0</GIVEN>
      <GIVEN>1</GIVEN>
      <GIVEN>8</GIVEN>
      <GIVEN>5</GIVEN>
      <GIVEN>7</GIVEN>
      <TABLE>0.40676817962244965 0.5932318203775504 0.8082093916587343 0.19179060834126577 0.6624514052075405 0.3375485947924594 0.6679737015472517 0.3320262984527484 0.2681377398705182 0.7318622601294819 0.5227028961503032 0.47729710384969676 0.5915157715494146 0.40848422845058546 0.2503238975532928 0.7496761024467072 0.24176316741192433 0.7582368325880756 0.5880726400484995 0.4119273599515005 0.5431539563334012 0.4568460436665988 0.556128256751548 0.443871743248452 0.2709387943308664 0.7290612056691337 0.2002662367256011 0.7997337632743989 0.44190392713110577 0.5580960728688942 0.2392850924539967 0.7607149075460033 0.43045894112296895 0.569541058877031 0.454367302574024 0.545632697425976 0.4027287991793845 0.5972712008206155 0.4576417263731818 0.5423582736268182 0.3126087306679285 0.6873912693320715 0.3633792918490363 0.6366207081509637 0.12175393307768025 0.8782460669223198 0.5672829234152765 0.4327170765847235 0.31577500463640307 0.6842249953635969 0.6437160872940276 0.3562839127059724 0.1744227929923703 0.8255772070076297 0.37488870609004354 0.6251112939099565 0.8769445181666548 0.12305548183334528 0.729858525173754 0.27014147482624595 0.9317333068575151 0.0682666931424849 0.4353976176835198 0.5646023823164801 </TABLE>
    </DEFINITION>
  </NETWORK>
</BIF>
