<?xml version='1.0' encoding='utf-8'?>
<BIF VERSION="0.3">
  <NETWORK>
    <NAME>UNTITLED</NAME>
    <VARIABLE TYPE="nature">
      <NAME>0</NAME>
      <OUTCOME>0</OUTCOME>
      <OUTCOME>1</OUTCOME>
      <PROPERTY>weight = None</PROPERTY>
    </VARIABLE>
    <VARIABLE TYPE="nature">
      <NAME>1</NAME>
      <OUTCOME>0</OUTCOME>
      <OUTCOME>1</OUTCOME>
      <PROPERTY>weight = None</PROPERTY>
    </VARIABLE>
    <VARIABLE TYPE="nature">
      <NAME>2</NAME>
      <OUTCOME>0</OUTCOME>
      <OUTCOME>1</OUTCOME>
      <PROPERTY>weight = None</PROPERTY>
    </VARIABLE>
    <VARIABLE TYPE="nature">
      <NAME>3</NAME>
      <OUTCOME>0</OUTCOME>
      <OUTCOME>1</OUTCOME>
      <PROPERTY>weight = None</PROPERTY>
    </VARIABLE>
    <VARIABLE TYPE="nature">
      <NAME>4</NAME>
      <OUTCOME>0</OUTCOME>
      <OUTCOME>1</OUTCOME>
      <PROPERTY>weight = None</PROPERTY>
    </VARIABLE>
    <VARIABLE TYPE="nature">
      <NAME>5</NAME>
      <OUTCOME>0</OUTCOME>
      <OUTCOME>1</OUTCOME>
      <PROPERTY>weight = None</PROPERTY>
    </VARIABLE>
    <VARIABLE TYPE="nature">
      <NAME>6</NAME>
      <OUTCOME>0</OUTCOME>
      <OUTCOME>1</OUTCOME>
      <PROPERTY>weight = None</PROPERTY>
    </VARIABLE>
    <VARIABLE TYPE="nature">
      <NAME>7</NAME>
      <OUTCOME>0</OUTCOME>
      <OUTCOME>1</OUTCOME>
      <PROPERTY>weight = None</PROPERTY>
    </VARIABLE>
    <VARIABLE TYPE="nature">
      <NAME>8</NAME>
      <OUTCOME>0</OUTCOME>
      <OUTCOME>1</OUTCOME>
      <PROPERTY>weight = None</PROPERTY>
    </VARIABLE>
    <VARIABLE TYPE="nature">
      <NAME>9</NAME>
      <OUTCOME>0</OUTCOME>
      <OUTCOME>1</OUTCOME>
      <PROPERTY>weight = None</PROPERTY>
    </VARIABLE>
    <DEFINITION>
      <FOR>0</FOR>
      <TABLE>0.5853525988609539 0.41464740113904613 </TABLE>
    </DEFINITION>
    <DEFINITION>
      <FOR>1</FOR>
      <TABLE>0.7860360203750885 0.21396397962491137 </TABLE>
    </DEFINITION>
    <DEFINITION>
      <FOR>2</FOR>
      <GIVEN>1</GIVEN>
      <TABLE>0.69448863580004 0.30551136419995983 0.4528954935889282 0.5471045064110719 </TABLE>
    </DEFINITION>
    <DEFINITION>
      <FOR>3</FOR>
      <GIVEN>0</GIVEN>
      <GIVEN>1</GIVEN>
      <TABLE>0.13458491012260362 0.8654150898773962 0.23717523663241674 0.7628247633675832 0.15196523138732476 0.8480347686126752 0.276230561874334 0.7237694381256661 </TABLE>
    </DEFINITION>
    <DEFINITION>
      <FOR>4</FOR>
      <GIVEN>3</GIVEN>
      <GIVEN>1</GIVEN>
      <TABLE>0.35743489095758896 0.642565109042411 0.29265345670664045 0.7073465432933597 0.7469379971665862 0.2530620028334139 0.2717870083034395 0.7282129916965605 </TABLE>
    </DEFINITION>
    <DEFINITION>
      <FOR>5</FOR>
      <GIVEN>2</GIVEN>
      <TABLE>0.6232717267385708 0.3767282732614292 0.5990349829710687 0.4009650170289314 </TABLE>
    </DEFINITION>
    <DEFINITION>
      <FOR>6</FOR>
      <GIVEN>1</GIVEN>
      <GIVEN>2</GIVEN>
      <GIVEN>4</GIVEN>
      <GIVEN>5</GIVEN>
      <TABLE>0.519016884247372 0.480983115752628 0.477421892588234 0.522578107411766 0.485324693407065 0.514675306592935 0.6861218186399096 0.3138781813600903 0.5164493684911892 0.4835506315088109 0.23534388507344906 0.764656114926551 0.6800645667491529 0.3199354332508471 0.8896746965230534 0.11032530347694652 0.12913318423345496 0.8708668157665449 0.09587394090848546 0.9041260590915144 0.2457726333769756 0.7542273666230244 0.04589841615659131 0.9541015838434087 0.6911384998579356 0.3088615001420644 0.7329236771140015 0.2670763228859985 0.7550850325584633 0.2449149674415367 0.5159029222101761 0.48409707778982397 </TABLE>
    </DEFINITION>
    <DEFINITION>
      <FOR>7</FOR>
      <GIVEN>0</GIVEN>
      <GIVEN>3</GIVEN>
      <GIVEN>4</GIVEN>
      <GIVEN>6</GIVEN>
      <GIVEN>5</GIVEN>
      <TABLE>0.5228147535368497 0.47718524646315025 0.6055333839598609 0.39446661604013916 0.7377947986320484 0.26220520136795156 0.32933869024431267 0.6706613097556873 0.46333224310267396 0.5366677568973259 0.5021001116682752 0.49789988833172477 0.552290669098173 0.44770933090182685 0.49347817505938985 0.5065218249406102 0.2830648980793201 0.7169351019206799 0.7425830727626493 0.25741692723735066 0.9465746823152158 0.053425317684784236 0.8414024863528167 0.15859751364718347 0.40231569733474165 0.5976843026652583 0.710397484093488 0.2896025159065119 0.41472565623983376 0.5852743437601663 0.007006319008749539 0.9929936809912505 0.9285267816891083 0.07147321831089169 0.4064016729043928 0.5935983270956072 0.672879680880092 0.3271203191199081 0.7942056947696957 0.20579430523030431 0.664544671109274 0.335455328890726 0.4669503215052404 0.5330496784947596 0.1800581058990808 0.8199418941009192 0.1174695342815578 0.8825304657184422 0.3093083938941524 0.6906916061058476 0.7062632441879271 0.293736755812073 0.07752215832633634 0.9224778416736636 0.6731437860178081 0.3268562139821918 0.5079628725164038 0.4920371274835962 0.5989792436611663 0.4010207563388337 0.9664922593113334 0.033507740688666576 0.8277882201571665 0.1722117798428335 </TABLE>
    </DEFINITION>
    <DEFINITION>
      <FOR>8</FOR>
      <GIVEN>7</GIVEN>
      <TABLE>0.508945885833769 0.491054114166231 0.6997030521188448 0.3002969478811552 </TABLE>
    </DEFINITION>
    <DEFINITION>
      <FOR>9</FOR>
      <GIVEN>0</GIVEN>
      <GIVEN>7</GIVEN>
      <GIVEN>1</GIVEN>
      <GIVEN>8</GIVEN>
      <TABLE>0.2780401170645277 0.7219598829354723 0.004951441866496124 0.9950485581335039 0.3355417311359157 0.6644582688640842 0.32931712210920044 0.6706828778907996 0.42143656095998433 0.5785634390400157 0.6439792901186672 0.3560207098813329 0.5170309486733135 0.4829690513266864 0.9262696660644287 0.07373033393557128 0.34319484626423075 0.6568051537357693 0.5544491333076752 0.4455508666923247 0.5918058648801483 0.40819413511985164 0.7328359236349 0.2671640763651 0.8278124237866548 0.1721875762133453 0.7896756499481217 0.2103243500518783 0.4571780481449431 0.5428219518550569 0.9059250609923828 0.09407493900761725 </TABLE>
    </DEFINITION>
  </NETWORK>
</BIF>
